{
  "0": {
    "brain": {
      "weightList": [
        {
          "data": [
            [
              0.33213382171762085,
              -0.8363683096781984,
              -0.4790112649228889,
              0.374102014702357,
              -0.3599832239439822,
              0.04658988948430579,
              -0.7569292474516297,
              0.5753599541095681
            ],
            [
              -0.29050331623335085,
              -0.822120297763063,
              0.43483060405106366,
              -0.1889800610334673,
              0.3563301295736854,
              0.0017080415618924072,
              0.6099834519912756,
              -0.5510157834617619
            ],
            [
              0.5393396858280641,
              -0.6060121914033788,
              -0.5917920108400744,
              0.37750793956585865,
              0.20746959493173467,
              -0.14724556903581792,
              -0.4313959065833633,
              0.5053855276908327
            ],
            [
              -0.5866964615762325,
              0.18476961358631044,
              0.11234779736493358,
              0.024914228132010725,
              0.4903461529899126,
              -0.8911258486238902,
              -0.6488182011101696,
              -0.03204084830580779
            ],
            [
              0.3138022806505876,
              -0.08212632698634267,
              -0.16356712861550943,
              -0.14591350065097647,
              0.7292053576252139,
              -0.2734156012240379,
              -0.2913261548980017,
              -0.5161241880135482
            ]
          ],
          "size": [
            5,
            8
          ]
        },
        {
          "data": [
            [
              0.6459800536085928,
              -0.13777142184463181,
              -0.13028018287344206,
              0.47614270081629506,
              1.3221354785821453
            ],
            [
              0.2764425407127926,
              0.900166214661432,
              0.25783918513531406,
              1.2446981479243013,
              0.7504903743913991
            ],
            [
              -0.72936290671911,
              0.26272386601650904,
              0.02837264554075964,
              0.3487859565853179,
              -0.030150201033732837
            ],
            [
              0.6790655477841872,
              -0.466071673869588,
              0.005150053887290265,
              0.6343703642989946,
              0.1046591949723763
            ]
          ],
          "size": [
            4,
            5
          ]
        }
      ],
      "biasList": [
        {
          "data": [
            [
              0
            ],
            [
              0
            ],
            [
              0
            ],
            [
              0
            ],
            [
              0
            ]
          ],
          "size": [
            5,
            1
          ]
        },
        {
          "data": [
            [
              0
            ],
            [
              0
            ],
            [
              0
            ],
            [
              0
            ]
          ],
          "size": [
            4,
            1
          ]
        }
      ],
      "layer": [
        8,
        5,
        4
      ]
    },
    "score": -62733
  },
  "1": {
    "brain": {
      "weightList": [
        {
          "data": [
            [
              0.36520401636860167,
              -1.0197334656814874,
              0.1233206319663915,
              -0.6325785808099553,
              -0.8180249819677271,
              0.21937257706181795,
              0.1542818116619328,
              0.03010805451441463
            ],
            [
              0.4663296052898728,
              -0.6265058103135731,
              0.18801033272846987,
              -0.08912413312188913,
              0.27828667967901893,
              -0.17059286967497286,
              -0.030481637841908143,
              0.325203690875282
            ],
            [
              0.4621275079324787,
              0.18078745810694005,
              0.057630866987167,
              -0.08129195744896431,
              0.47788608860286125,
              -1.04447725366467,
              -0.7599419638090652,
              0.008246281340281719
            ],
            [
              -0.48178495091922424,
              0.5841374525496884,
              1.1095993957831858,
              0.18892633255883656,
              -0.9528863144972425,
              0.43875789416953725,
              -0.19933732532063997,
              -0.3871909902134962
            ],
            [
              -0.13621874469672568,
              -0.4317616714839581,
              0.4042022327080094,
              -1.0635475149056894,
              0.9284302002400273,
              0.6719169009370402,
              -0.1256771689857759,
              0.5661724711801931
            ]
          ],
          "size": [
            5,
            8
          ]
        },
        {
          "data": [
            [
              0.439704542382091,
              -0.6382352203550908,
              -0.2378011992683534,
              -0.07950676295960613,
              0.1351312696769358
            ],
            [
              0.7905117335281961,
              -0.10934565162675482,
              -0.17328193389034527,
              -0.16112560700047912,
              -0.1103535964947854
            ],
            [
              1.2254122008811026,
              0.06778529451563292,
              0.1708965204081752,
              0.17420602344036826,
              -0.012275398987754857
            ],
            [
              -0.43315213241334377,
              1.0181993191438403,
              -0.7956184066996337,
              -0.5020731027229429,
              0.13259062432239863
            ]
          ],
          "size": [
            4,
            5
          ]
        }
      ],
      "biasList": [
        {
          "data": [
            [
              0
            ],
            [
              0
            ],
            [
              0
            ],
            [
              0
            ],
            [
              0
            ]
          ],
          "size": [
            5,
            1
          ]
        },
        {
          "data": [
            [
              0
            ],
            [
              0
            ],
            [
              0
            ],
            [
              0
            ]
          ],
          "size": [
            4,
            1
          ]
        }
      ],
      "layer": [
        8,
        5,
        4
      ]
    },
    "score": -61954
  },
  "2": {
    "brain": {
      "weightList": [
        {
          "data": [
            [
              0.052369215534906595,
              -0.6548136736342894,
              0.20244803539573142,
              -0.33251452858134917,
              -0.8776459312745152,
              0.5667937952453146,
              -0.46948682400573954,
              0.2593988676174769
            ],
            [
              -0.48810278052234296,
              -0.5170155341799085,
              -0.1757958138708429,
              0.04864210723826235,
              0.02012726309171371,
              -0.13559066492679114,
              0.7549831360569985,
              -0.0021831092385117697
            ],
            [
              -0.7205199448608236,
              -0.2152793014129229,
              -0.42232941303469274,
              -0.09712090089768997,
              -0.07664604645116836,
              -0.2113126103477638,
              0.3077663187804628,
              -0.5011932774131672
            ],
            [
              -0.4257389992301572,
              0.47101466390505553,
              -0.6341541090225663,
              0.16393973066652878,
              -0.40441974529817243,
              0.45788139528285865,
              -0.29702165895422444,
              0.7470688402504354
            ],
            [
              0.2947070227891203,
              0.037256188084206464,
              0.1299445856158052,
              -0.45736286637999,
              -0.0020744198982988243,
              0.334962035668337,
              -0.12108839977418334,
              -0.10887149210318192
            ]
          ],
          "size": [
            5,
            8
          ]
        },
        {
          "data": [
            [
              0.19431420814959496,
              -0.9038564074085643,
              0.44034669148530975,
              -0.1533273681151207,
              0.2813651811943495
            ],
            [
              -0.04044839940273608,
              -0.07199690918489016,
              -0.09061562608426067,
              0.608421517694044,
              -0.828053358211444
            ],
            [
              -0.8329607917054354,
              -0.30703133736203375,
              0.7131464271342651,
              -0.5113826340006492,
              0.23033694748066674
            ],
            [
              0.29883868453013157,
              0.9102566264596543,
              -0.25885562099579734,
              0.5990714361954261,
              -0.9897043682001375
            ]
          ],
          "size": [
            4,
            5
          ]
        }
      ],
      "biasList": [
        {
          "data": [
            [
              0
            ],
            [
              0
            ],
            [
              0
            ],
            [
              0
            ],
            [
              0
            ]
          ],
          "size": [
            5,
            1
          ]
        },
        {
          "data": [
            [
              0
            ],
            [
              0
            ],
            [
              0
            ],
            [
              0
            ]
          ],
          "size": [
            4,
            1
          ]
        }
      ],
      "layer": [
        8,
        5,
        4
      ]
    },
    "score": -52738
  },
  "3": {
    "brain": {
      "weightList": [
        {
          "data": [
            [
              0.052369215534906595,
              -0.6548136736342894,
              0.20244803539573142,
              -0.33251452858134917,
              -0.8776459312745152,
              0.5667937952453146,
              -0.46948682400573954,
              0.2593988676174769
            ],
            [
              -0.48810278052234296,
              -0.5170155341799085,
              -0.1757958138708429,
              0.04864210723826235,
              0.02012726309171371,
              -0.13559066492679114,
              0.7549831360569985,
              -0.0021831092385117697
            ],
            [
              -0.7205199448608236,
              -0.2152793014129229,
              -0.42232941303469274,
              -0.09712090089768997,
              -0.07664604645116836,
              -0.2113126103477638,
              0.3077663187804628,
              -0.5011932774131672
            ],
            [
              -0.4257389992301572,
              0.47101466390505553,
              -0.6341541090225663,
              0.16393973066652878,
              -0.40441974529817243,
              0.45788139528285865,
              -0.29702165895422444,
              0.7470688402504354
            ],
            [
              0.2947070227891203,
              0.037256188084206464,
              0.1299445856158052,
              -0.45736286637999,
              -0.0020744198982988243,
              0.334962035668337,
              -0.12108839977418334,
              -0.10887149210318192
            ]
          ],
          "size": [
            5,
            8
          ]
        },
        {
          "data": [
            [
              0.19431420814959496,
              -0.9038564074085643,
              0.44034669148530975,
              -0.1533273681151207,
              0.2813651811943495
            ],
            [
              -0.04044839940273608,
              -0.07199690918489016,
              -0.09061562608426067,
              0.608421517694044,
              -0.828053358211444
            ],
            [
              -0.8329607917054354,
              -0.30703133736203375,
              0.7131464271342651,
              -0.5113826340006492,
              0.23033694748066674
            ],
            [
              0.29883868453013157,
              0.9102566264596543,
              -0.25885562099579734,
              0.5990714361954261,
              -0.9897043682001375
            ]
          ],
          "size": [
            4,
            5
          ]
        }
      ],
      "biasList": [
        {
          "data": [
            [
              0
            ],
            [
              0
            ],
            [
              0
            ],
            [
              0
            ],
            [
              0
            ]
          ],
          "size": [
            5,
            1
          ]
        },
        {
          "data": [
            [
              0
            ],
            [
              0
            ],
            [
              0
            ],
            [
              0
            ]
          ],
          "size": [
            4,
            1
          ]
        }
      ],
      "layer": [
        8,
        5,
        4
      ]
    },
    "score": -42074
  },
  "4": {
    "brain": {
      "weightList": [
        {
          "data": [
            [
              0.4072501628461883,
              0.2111857862428318,
              0.15764828286812838,
              0.8780558163144693,
              -0.26611171270085543,
              0.7052575819349498,
              0.27585930072588644,
              -0.2237893936114301
            ],
            [
              0.8178871600114531,
              0.2830292464682176,
              0.1018815428597202,
              0.07553922235054714,
              0.07461749376695238,
              0.2831036107103574,
              -0.28736126811834645,
              0.21306350855704795
            ],
            [
              -0.16575530124922483,
              -0.2839124703823562,
              -0.5013755986010343,
              -0.716199774203952,
              -0.12527432132766933,
              -0.47721192902686804,
              -0.4060818268521585,
              0.24547415933283304
            ],
            [
              -0.11718720483599221,
              -0.6297686477206359,
              -0.14218608142052858,
              -0.37520892860431276,
              -0.16107500519207169,
              0.8190251058641268,
              -0.1668035142701677,
              -0.25475381534478186
            ],
            [
              -1.0451623479934595,
              0.1278397950842299,
              0.2125067917169036,
              0.15747405074118845,
              -0.5299429671809566,
              -0.07001481059718888,
              -0.19398155164993616,
              -0.9208387273242724
            ]
          ],
          "size": [
            5,
            8
          ]
        },
        {
          "data": [
            [
              0.0744598302089295,
              0.18558287553521913,
              -0.8684518184085893,
              0.06485678901932222,
              -0.45522928754302183
            ],
            [
              -0.13794679804017854,
              0.3176611002310628,
              -0.8016735099872104,
              1.417206618593799,
              -0.22227329951035044
            ],
            [
              -1.2205789057479997,
              -0.01528316019906761,
              0.4782985689699189,
              -0.06807254796356217,
              -0.4080930265515862
            ],
            [
              -0.3689594638205837,
              0.1294004416125714,
              0.7661065246240021,
              0.07722986995339144,
              -0.023476836180745655
            ]
          ],
          "size": [
            4,
            5
          ]
        }
      ],
      "biasList": [
        {
          "data": [
            [
              0
            ],
            [
              0
            ],
            [
              0
            ],
            [
              0
            ],
            [
              0
            ]
          ],
          "size": [
            5,
            1
          ]
        },
        {
          "data": [
            [
              0
            ],
            [
              0
            ],
            [
              0
            ],
            [
              0
            ]
          ],
          "size": [
            4,
            1
          ]
        }
      ],
      "layer": [
        8,
        5,
        4
      ]
    },
    "score": -50720
  },
  "5": {
    "brain": {
      "weightList": [
        {
          "data": [
            [
              0.4072501628461883,
              0.2111857862428318,
              0.15764828286812838,
              0.8780558163144693,
              -0.26611171270085543,
              0.7052575819349498,
              0.27585930072588644,
              -0.2237893936114301
            ],
            [
              0.8178871600114531,
              0.2830292464682176,
              0.1018815428597202,
              0.07553922235054714,
              0.07461749376695238,
              0.2831036107103574,
              -0.28736126811834645,
              0.21306350855704795
            ],
            [
              -0.16575530124922483,
              -0.2839124703823562,
              -0.5013755986010343,
              -0.716199774203952,
              -0.12527432132766933,
              -0.47721192902686804,
              -0.4060818268521585,
              0.24547415933283304
            ],
            [
              -0.11718720483599221,
              -0.6297686477206359,
              -0.14218608142052858,
              -0.37520892860431276,
              -0.16107500519207169,
              0.8190251058641268,
              -0.1668035142701677,
              -0.25475381534478186
            ],
            [
              -1.0451623479934595,
              0.1278397950842299,
              0.2125067917169036,
              0.15747405074118845,
              -0.5299429671809566,
              -0.07001481059718888,
              -0.19398155164993616,
              -0.9208387273242724
            ]
          ],
          "size": [
            5,
            8
          ]
        },
        {
          "data": [
            [
              0.0744598302089295,
              0.18558287553521913,
              -0.8684518184085893,
              0.06485678901932222,
              -0.45522928754302183
            ],
            [
              -0.13794679804017854,
              0.3176611002310628,
              -0.8016735099872104,
              1.417206618593799,
              -0.22227329951035044
            ],
            [
              -1.2205789057479997,
              -0.01528316019906761,
              0.4782985689699189,
              -0.06807254796356217,
              -0.4080930265515862
            ],
            [
              -0.3689594638205837,
              0.1294004416125714,
              0.7661065246240021,
              0.07722986995339144,
              -0.023476836180745655
            ]
          ],
          "size": [
            4,
            5
          ]
        }
      ],
      "biasList": [
        {
          "data": [
            [
              0
            ],
            [
              0
            ],
            [
              0
            ],
            [
              0
            ],
            [
              0
            ]
          ],
          "size": [
            5,
            1
          ]
        },
        {
          "data": [
            [
              0
            ],
            [
              0
            ],
            [
              0
            ],
            [
              0
            ]
          ],
          "size": [
            4,
            1
          ]
        }
      ],
      "layer": [
        8,
        5,
        4
      ]
    },
    "score": -31188
  },
  "6": {
    "brain": {
      "weightList": [
        {
          "data": [
            [
              0.4072501628461883,
              0.2111857862428318,
              0.15764828286812838,
              0.8780558163144693,
              -0.26611171270085543,
              0.7052575819349498,
              0.27585930072588644,
              -0.2237893936114301
            ],
            [
              0.8178871600114531,
              0.2830292464682176,
              0.1018815428597202,
              0.07553922235054714,
              0.07461749376695238,
              0.2831036107103574,
              -0.28736126811834645,
              0.21306350855704795
            ],
            [
              -0.16575530124922483,
              -0.2839124703823562,
              -0.5013755986010343,
              -0.716199774203952,
              -0.12527432132766933,
              -0.47721192902686804,
              -0.4060818268521585,
              0.24547415933283304
            ],
            [
              -0.11718720483599221,
              -0.6297686477206359,
              -0.14218608142052858,
              -0.37520892860431276,
              -0.16107500519207169,
              0.8190251058641268,
              -0.1668035142701677,
              -0.25475381534478186
            ],
            [
              -1.0451623479934595,
              0.1278397950842299,
              0.2125067917169036,
              0.15747405074118845,
              -0.5299429671809566,
              -0.07001481059718888,
              -0.19398155164993616,
              -0.9208387273242724
            ]
          ],
          "size": [
            5,
            8
          ]
        },
        {
          "data": [
            [
              0.0744598302089295,
              0.18558287553521913,
              -0.8684518184085893,
              0.06485678901932222,
              -0.45522928754302183
            ],
            [
              -0.13794679804017854,
              0.3176611002310628,
              -0.8016735099872104,
              1.417206618593799,
              -0.22227329951035044
            ],
            [
              -1.2205789057479997,
              -0.01528316019906761,
              0.4782985689699189,
              -0.06807254796356217,
              -0.4080930265515862
            ],
            [
              -0.3689594638205837,
              0.1294004416125714,
              0.7661065246240021,
              0.07722986995339144,
              -0.023476836180745655
            ]
          ],
          "size": [
            4,
            5
          ]
        }
      ],
      "biasList": [
        {
          "data": [
            [
              0
            ],
            [
              0
            ],
            [
              0
            ],
            [
              0
            ],
            [
              0
            ]
          ],
          "size": [
            5,
            1
          ]
        },
        {
          "data": [
            [
              0
            ],
            [
              0
            ],
            [
              0
            ],
            [
              0
            ]
          ],
          "size": [
            4,
            1
          ]
        }
      ],
      "layer": [
        8,
        5,
        4
      ]
    },
    "score": -40068
  },
  "7": {
    "brain": {
      "weightList": [
        {
          "data": [
            [
              0.052369215534906595,
              -0.6548136736342894,
              0.20244803539573142,
              -0.33251452858134917,
              -0.8776459312745152,
              0.5667937952453146,
              -0.46948682400573954,
              0.2593988676174769
            ],
            [
              -0.48810278052234296,
              -0.5170155341799085,
              -0.1757958138708429,
              0.04864210723826235,
              0.02012726309171371,
              -0.13559066492679114,
              0.7549831360569985,
              -0.0021831092385117697
            ],
            [
              -0.7205199448608236,
              -0.2152793014129229,
              -0.42232941303469274,
              -0.09712090089768997,
              -0.07664604645116836,
              -0.2113126103477638,
              0.3077663187804628,
              -0.5011932774131672
            ],
            [
              -0.4257389992301572,
              0.47101466390505553,
              -0.6341541090225663,
              0.16393973066652878,
              -0.40441974529817243,
              0.45788139528285865,
              -0.29702165895422444,
              0.7470688402504354
            ],
            [
              0.2947070227891203,
              0.037256188084206464,
              0.1299445856158052,
              -0.45736286637999,
              -0.0020744198982988243,
              0.334962035668337,
              -0.12108839977418334,
              -0.10887149210318192
            ]
          ],
          "size": [
            5,
            8
          ]
        },
        {
          "data": [
            [
              0.19431420814959496,
              -0.9038564074085643,
              0.44034669148530975,
              -0.1533273681151207,
              0.2813651811943495
            ],
            [
              -0.04044839940273608,
              -0.07199690918489016,
              -0.09061562608426067,
              0.608421517694044,
              -0.828053358211444
            ],
            [
              -0.8329607917054354,
              -0.30703133736203375,
              0.7131464271342651,
              -0.5113826340006492,
              0.23033694748066674
            ],
            [
              0.29883868453013157,
              0.9102566264596543,
              -0.25885562099579734,
              0.5990714361954261,
              -0.9897043682001375
            ]
          ],
          "size": [
            4,
            5
          ]
        }
      ],
      "biasList": [
        {
          "data": [
            [
              0
            ],
            [
              0
            ],
            [
              0
            ],
            [
              0
            ],
            [
              0
            ]
          ],
          "size": [
            5,
            1
          ]
        },
        {
          "data": [
            [
              0
            ],
            [
              0
            ],
            [
              0
            ],
            [
              0
            ]
          ],
          "size": [
            4,
            1
          ]
        }
      ],
      "layer": [
        8,
        5,
        4
      ]
    },
    "score": -40362
  },
  "8": {
    "brain": {
      "weightList": [
        {
          "data": [
            [
              0.052369215534906595,
              -0.6548136736342894,
              0.20244803539573142,
              -0.33251452858134917,
              -0.8776459312745152,
              0.5667937952453146,
              -0.46948682400573954,
              0.2593988676174769
            ],
            [
              -0.48810278052234296,
              -0.5170155341799085,
              -0.1757958138708429,
              0.04864210723826235,
              0.02012726309171371,
              -0.13559066492679114,
              0.7549831360569985,
              -0.0021831092385117697
            ],
            [
              -0.7205199448608236,
              -0.2152793014129229,
              -0.42232941303469274,
              -0.09712090089768997,
              -0.07664604645116836,
              -0.2113126103477638,
              0.3077663187804628,
              -0.5011932774131672
            ],
            [
              -0.4257389992301572,
              0.47101466390505553,
              -0.6341541090225663,
              0.16393973066652878,
              -0.40441974529817243,
              0.45788139528285865,
              -0.29702165895422444,
              0.7470688402504354
            ],
            [
              0.2947070227891203,
              0.037256188084206464,
              0.1299445856158052,
              -0.45736286637999,
              -0.0020744198982988243,
              0.334962035668337,
              -0.12108839977418334,
              -0.10887149210318192
            ]
          ],
          "size": [
            5,
            8
          ]
        },
        {
          "data": [
            [
              0.19431420814959496,
              -0.9038564074085643,
              0.44034669148530975,
              -0.1533273681151207,
              0.2813651811943495
            ],
            [
              -0.04044839940273608,
              -0.07199690918489016,
              -0.09061562608426067,
              0.608421517694044,
              -0.828053358211444
            ],
            [
              -0.8329607917054354,
              -0.30703133736203375,
              0.7131464271342651,
              -0.5113826340006492,
              0.23033694748066674
            ],
            [
              0.29883868453013157,
              0.9102566264596543,
              -0.25885562099579734,
              0.5990714361954261,
              -0.9897043682001375
            ]
          ],
          "size": [
            4,
            5
          ]
        }
      ],
      "biasList": [
        {
          "data": [
            [
              0
            ],
            [
              0
            ],
            [
              0
            ],
            [
              0
            ],
            [
              0
            ]
          ],
          "size": [
            5,
            1
          ]
        },
        {
          "data": [
            [
              -0.183735476911976
            ],
            [
              0
            ],
            [
              0
            ],
            [
              0
            ]
          ],
          "size": [
            4,
            1
          ]
        }
      ],
      "layer": [
        8,
        5,
        4
      ]
    },
    "score": -36435
  },
  "9": {
    "brain": {
      "weightList": [
        {
          "data": [
            [
              0.4072501628461883,
              0.2111857862428318,
              0.15764828286812838,
              0.8780558163144693,
              -0.26611171270085543,
              0.7052575819349498,
              0.27585930072588644,
              -0.2237893936114301
            ],
            [
              0.8178871600114531,
              0.2830292464682176,
              0.1018815428597202,
              0.07553922235054714,
              0.07461749376695238,
              0.2831036107103574,
              -0.28736126811834645,
              0.21306350855704795
            ],
            [
              -0.16575530124922483,
              -0.2839124703823562,
              -0.5013755986010343,
              -0.716199774203952,
              -0.12527432132766933,
              -0.47721192902686804,
              -0.4060818268521585,
              0.24547415933283304
            ],
            [
              -0.11718720483599221,
              -0.6297686477206359,
              -0.14218608142052858,
              -0.37520892860431276,
              -0.16107500519207169,
              0.8190251058641268,
              -0.1668035142701677,
              -0.25475381534478186
            ],
            [
              -1.0451623479934595,
              0.1278397950842299,
              0.2125067917169036,
              0.15747405074118845,
              -0.5299429671809566,
              -0.07001481059718888,
              -0.19398155164993616,
              -0.9208387273242724
            ]
          ],
          "size": [
            5,
            8
          ]
        },
        {
          "data": [
            [
              0.0744598302089295,
              0.18558287553521913,
              -0.8684518184085893,
              0.06485678901932222,
              -0.45522928754302183
            ],
            [
              -0.13794679804017854,
              0.3176611002310628,
              -0.8016735099872104,
              1.417206618593799,
              -0.22227329951035044
            ],
            [
              -1.2205789057479997,
              -0.01528316019906761,
              0.4782985689699189,
              -0.06807254796356217,
              -0.4080930265515862
            ],
            [
              -0.3689594638205837,
              0.1294004416125714,
              0.7661065246240021,
              0.07722986995339144,
              -0.023476836180745655
            ]
          ],
          "size": [
            4,
            5
          ]
        }
      ],
      "biasList": [
        {
          "data": [
            [
              0
            ],
            [
              0
            ],
            [
              0
            ],
            [
              1.0988022430291697
            ],
            [
              -1.4241566325910213
            ]
          ],
          "size": [
            5,
            1
          ]
        },
        {
          "data": [
            [
              0
            ],
            [
              0
            ],
            [
              0
            ],
            [
              -0.779719901189558
            ]
          ],
          "size": [
            4,
            1
          ]
        }
      ],
      "layer": [
        8,
        5,
        4
      ]
    },
    "score": -33233
  },
  "10": {
    "brain": {
      "weightList": [
        {
          "data": [
            [
              0.052369215534906595,
              -0.6548136736342894,
              0.20244803539573142,
              -0.33251452858134917,
              -0.8776459312745152,
              0.5667937952453146,
              -0.46948682400573954,
              0.2593988676174769
            ],
            [
              -0.48810278052234296,
              -0.5170155341799085,
              -0.1757958138708429,
              0.04864210723826235,
              0.02012726309171371,
              -0.13559066492679114,
              0.7549831360569985,
              -0.0021831092385117697
            ],
            [
              -0.7205199448608236,
              -0.2152793014129229,
              -0.42232941303469274,
              -0.09712090089768997,
              -0.07664604645116836,
              -0.2113126103477638,
              0.3077663187804628,
              -0.5011932774131672
            ],
            [
              -0.4257389992301572,
              0.47101466390505553,
              -0.6341541090225663,
              0.16393973066652878,
              -0.40441974529817243,
              0.45788139528285865,
              -0.29702165895422444,
              0.7470688402504354
            ],
            [
              0.2947070227891203,
              0.037256188084206464,
              0.1299445856158052,
              -0.45736286637999,
              -0.0020744198982988243,
              0.334962035668337,
              -0.12108839977418334,
              -0.10887149210318192
            ]
          ],
          "size": [
            5,
            8
          ]
        },
        {
          "data": [
            [
              0.19431420814959496,
              -0.9038564074085643,
              0.44034669148530975,
              -0.1533273681151207,
              0.2813651811943495
            ],
            [
              -0.04044839940273608,
              -0.07199690918489016,
              -0.09061562608426067,
              0.608421517694044,
              -0.828053358211444
            ],
            [
              -0.8329607917054354,
              -0.30703133736203375,
              0.7131464271342651,
              -0.5113826340006492,
              0.23033694748066674
            ],
            [
              0.29883868453013157,
              0.9102566264596543,
              -0.25885562099579734,
              0.5990714361954261,
              -0.9897043682001375
            ]
          ],
          "size": [
            4,
            5
          ]
        }
      ],
      "biasList": [
        {
          "data": [
            [
              0
            ],
            [
              0
            ],
            [
              0
            ],
            [
              0
            ],
            [
              0
            ]
          ],
          "size": [
            5,
            1
          ]
        },
        {
          "data": [
            [
              -0.183735476911976
            ],
            [
              0
            ],
            [
              0
            ],
            [
              0
            ]
          ],
          "size": [
            4,
            1
          ]
        }
      ],
      "layer": [
        8,
        5,
        4
      ]
    },
    "score": -28944
  },
  "11": {
    "brain": {
      "weightList": [
        {
          "data": [
            [
              0.052369215534906595,
              -0.6548136736342894,
              0.20244803539573142,
              -0.33251452858134917,
              -0.8776459312745152,
              0.5667937952453146,
              -0.46948682400573954,
              0.2593988676174769
            ],
            [
              -0.48810278052234296,
              -0.5170155341799085,
              -0.1757958138708429,
              0.04864210723826235,
              0.02012726309171371,
              -0.13559066492679114,
              0.7549831360569985,
              -0.0021831092385117697
            ],
            [
              -0.7205199448608236,
              -0.2152793014129229,
              -0.42232941303469274,
              -0.09712090089768997,
              -0.07664604645116836,
              -0.2113126103477638,
              0.3077663187804628,
              -0.5011932774131672
            ],
            [
              -0.4257389992301572,
              0.47101466390505553,
              -0.6341541090225663,
              0.16393973066652878,
              -0.40441974529817243,
              0.45788139528285865,
              -0.29702165895422444,
              0.7470688402504354
            ],
            [
              0.2947070227891203,
              0.037256188084206464,
              0.1299445856158052,
              -0.45736286637999,
              -0.0020744198982988243,
              0.334962035668337,
              -0.12108839977418334,
              -0.10887149210318192
            ]
          ],
          "size": [
            5,
            8
          ]
        },
        {
          "data": [
            [
              0.19431420814959496,
              -0.9038564074085643,
              0.44034669148530975,
              -0.1533273681151207,
              0.2813651811943495
            ],
            [
              -0.04044839940273608,
              -0.07199690918489016,
              -0.09061562608426067,
              0.608421517694044,
              -0.828053358211444
            ],
            [
              -0.8329607917054354,
              -0.30703133736203375,
              0.7131464271342651,
              -0.5113826340006492,
              0.23033694748066674
            ],
            [
              0.29883868453013157,
              0.9102566264596543,
              -0.25885562099579734,
              0.5990714361954261,
              -0.9897043682001375
            ]
          ],
          "size": [
            4,
            5
          ]
        }
      ],
      "biasList": [
        {
          "data": [
            [
              0
            ],
            [
              0
            ],
            [
              0
            ],
            [
              0
            ],
            [
              0
            ]
          ],
          "size": [
            5,
            1
          ]
        },
        {
          "data": [
            [
              0
            ],
            [
              0
            ],
            [
              0
            ],
            [
              -0.33068986690549385
            ]
          ],
          "size": [
            4,
            1
          ]
        }
      ],
      "layer": [
        8,
        5,
        4
      ]
    },
    "score": -28205
  },
  "12": {
    "brain": {
      "weightList": [
        {
          "data": [
            [
              0.052369215534906595,
              -0.6548136736342894,
              0.20244803539573142,
              -0.33251452858134917,
              -0.8776459312745152,
              0.5667937952453146,
              -0.46948682400573954,
              0.2593988676174769
            ],
            [
              -0.48810278052234296,
              -0.5170155341799085,
              -0.1757958138708429,
              0.04864210723826235,
              0.02012726309171371,
              -0.13559066492679114,
              0.7549831360569985,
              -0.0021831092385117697
            ],
            [
              -0.7205199448608236,
              -0.2152793014129229,
              -0.42232941303469274,
              -0.09712090089768997,
              -0.07664604645116836,
              -0.2113126103477638,
              0.3077663187804628,
              -0.5011932774131672
            ],
            [
              -0.4257389992301572,
              0.47101466390505553,
              -0.6341541090225663,
              0.16393973066652878,
              -0.40441974529817243,
              0.45788139528285865,
              -0.29702165895422444,
              0.7470688402504354
            ],
            [
              0.2947070227891203,
              0.037256188084206464,
              0.1299445856158052,
              -0.45736286637999,
              -0.0020744198982988243,
              0.334962035668337,
              -0.12108839977418334,
              -0.10887149210318192
            ]
          ],
          "size": [
            5,
            8
          ]
        },
        {
          "data": [
            [
              0.19431420814959496,
              -0.9038564074085643,
              0.44034669148530975,
              -0.1533273681151207,
              0.2813651811943495
            ],
            [
              -0.04044839940273608,
              -0.07199690918489016,
              -0.09061562608426067,
              0.608421517694044,
              -0.828053358211444
            ],
            [
              -0.8329607917054354,
              -0.30703133736203375,
              0.7131464271342651,
              -0.5113826340006492,
              0.23033694748066674
            ],
            [
              0.29883868453013157,
              0.9102566264596543,
              -0.25885562099579734,
              0.5990714361954261,
              -0.9897043682001375
            ]
          ],
          "size": [
            4,
            5
          ]
        }
      ],
      "biasList": [
        {
          "data": [
            [
              0
            ],
            [
              0
            ],
            [
              0
            ],
            [
              0
            ],
            [
              -1.2014730079619833
            ]
          ],
          "size": [
            5,
            1
          ]
        },
        {
          "data": [
            [
              -0.183735476911976
            ],
            [
              0
            ],
            [
              0
            ],
            [
              0
            ]
          ],
          "size": [
            4,
            1
          ]
        }
      ],
      "layer": [
        8,
        5,
        4
      ]
    },
    "score": -25179
  },
  "13": {
    "brain": {
      "weightList": [
        {
          "data": [
            [
              0.052369215534906595,
              -0.6548136736342894,
              0.20244803539573142,
              -0.33251452858134917,
              -0.8776459312745152,
              0.5667937952453146,
              -0.46948682400573954,
              0.2593988676174769
            ],
            [
              -0.48810278052234296,
              -0.5170155341799085,
              -0.1757958138708429,
              0.04864210723826235,
              0.02012726309171371,
              -0.13559066492679114,
              0.7549831360569985,
              -0.0021831092385117697
            ],
            [
              -0.7205199448608236,
              -0.2152793014129229,
              -0.42232941303469274,
              -0.09712090089768997,
              -0.07664604645116836,
              -0.2113126103477638,
              0.3077663187804628,
              -0.5011932774131672
            ],
            [
              -0.4257389992301572,
              0.47101466390505553,
              -0.6341541090225663,
              0.16393973066652878,
              -0.40441974529817243,
              0.45788139528285865,
              -0.29702165895422444,
              0.7470688402504354
            ],
            [
              0.2947070227891203,
              0.037256188084206464,
              0.1299445856158052,
              -0.45736286637999,
              -0.0020744198982988243,
              0.334962035668337,
              -0.12108839977418334,
              -0.10887149210318192
            ]
          ],
          "size": [
            5,
            8
          ]
        },
        {
          "data": [
            [
              0.19431420814959496,
              -0.9038564074085643,
              0.44034669148530975,
              -0.1533273681151207,
              0.2813651811943495
            ],
            [
              -0.04044839940273608,
              -0.07199690918489016,
              -0.09061562608426067,
              0.608421517694044,
              -0.828053358211444
            ],
            [
              -0.8329607917054354,
              -0.30703133736203375,
              0.7131464271342651,
              -0.5113826340006492,
              0.23033694748066674
            ],
            [
              0.29883868453013157,
              0.9102566264596543,
              -0.25885562099579734,
              0.5990714361954261,
              -0.9897043682001375
            ]
          ],
          "size": [
            4,
            5
          ]
        }
      ],
      "biasList": [
        {
          "data": [
            [
              0
            ],
            [
              0
            ],
            [
              0
            ],
            [
              0
            ],
            [
              0
            ]
          ],
          "size": [
            5,
            1
          ]
        },
        {
          "data": [
            [
              -0.183735476911976
            ],
            [
              0
            ],
            [
              0
            ],
            [
              0
            ]
          ],
          "size": [
            4,
            1
          ]
        }
      ],
      "layer": [
        8,
        5,
        4
      ]
    },
    "score": -29831
  },
  "14": {
    "brain": {
      "weightList": [
        {
          "data": [
            [
              0.052369215534906595,
              -0.6548136736342894,
              0.20244803539573142,
              -0.33251452858134917,
              -0.8776459312745152,
              0.5667937952453146,
              -0.46948682400573954,
              0.2593988676174769
            ],
            [
              -0.48810278052234296,
              -0.5170155341799085,
              -0.1757958138708429,
              0.04864210723826235,
              0.02012726309171371,
              -0.13559066492679114,
              0.7549831360569985,
              -0.0021831092385117697
            ],
            [
              -0.7205199448608236,
              -0.2152793014129229,
              -0.42232941303469274,
              -0.09712090089768997,
              -0.07664604645116836,
              -0.2113126103477638,
              0.3077663187804628,
              -0.5011932774131672
            ],
            [
              -0.4257389992301572,
              0.47101466390505553,
              -0.6341541090225663,
              0.16393973066652878,
              -0.40441974529817243,
              0.45788139528285865,
              -0.29702165895422444,
              0.7470688402504354
            ],
            [
              0.2947070227891203,
              0.037256188084206464,
              0.1299445856158052,
              -0.45736286637999,
              -0.0020744198982988243,
              0.334962035668337,
              -0.12108839977418334,
              -0.10887149210318192
            ]
          ],
          "size": [
            5,
            8
          ]
        },
        {
          "data": [
            [
              0.19431420814959496,
              -0.9038564074085643,
              0.44034669148530975,
              -0.1533273681151207,
              0.2813651811943495
            ],
            [
              -0.04044839940273608,
              -0.07199690918489016,
              -0.09061562608426067,
              0.608421517694044,
              -0.828053358211444
            ],
            [
              -0.8329607917054354,
              -0.30703133736203375,
              0.7131464271342651,
              -0.5113826340006492,
              0.23033694748066674
            ],
            [
              0.29883868453013157,
              0.9102566264596543,
              -0.25885562099579734,
              0.5990714361954261,
              -0.9897043682001375
            ]
          ],
          "size": [
            4,
            5
          ]
        }
      ],
      "biasList": [
        {
          "data": [
            [
              0
            ],
            [
              0
            ],
            [
              0
            ],
            [
              -1.0655997874674297
            ],
            [
              0
            ]
          ],
          "size": [
            5,
            1
          ]
        },
        {
          "data": [
            [
              0
            ],
            [
              0
            ],
            [
              0
            ],
            [
              0
            ]
          ],
          "size": [
            4,
            1
          ]
        }
      ],
      "layer": [
        8,
        5,
        4
      ]
    },
    "score": -28001
  },
  "15": {
    "brain": {
      "weightList": [
        {
          "data": [
            [
              0.052369215534906595,
              -0.6548136736342894,
              0.20244803539573142,
              -0.33251452858134917,
              -0.8776459312745152,
              0.5667937952453146,
              -0.46948682400573954,
              0.2593988676174769
            ],
            [
              -0.48810278052234296,
              -0.5170155341799085,
              -0.1757958138708429,
              0.04864210723826235,
              0.02012726309171371,
              -0.13559066492679114,
              0.7549831360569985,
              -0.0021831092385117697
            ],
            [
              -0.7205199448608236,
              -0.2152793014129229,
              -0.42232941303469274,
              -0.09712090089768997,
              -0.07664604645116836,
              -0.2113126103477638,
              0.3077663187804628,
              -0.5011932774131672
            ],
            [
              -0.4257389992301572,
              0.47101466390505553,
              -0.6341541090225663,
              0.16393973066652878,
              -0.40441974529817243,
              0.45788139528285865,
              -0.29702165895422444,
              0.7470688402504354
            ],
            [
              0.2947070227891203,
              0.037256188084206464,
              0.1299445856158052,
              -0.45736286637999,
              -0.0020744198982988243,
              0.334962035668337,
              -0.12108839977418334,
              -0.10887149210318192
            ]
          ],
          "size": [
            5,
            8
          ]
        },
        {
          "data": [
            [
              0.19431420814959496,
              -0.9038564074085643,
              0.44034669148530975,
              -0.1533273681151207,
              0.2813651811943495
            ],
            [
              -0.04044839940273608,
              -0.07199690918489016,
              -0.09061562608426067,
              0.608421517694044,
              -0.828053358211444
            ],
            [
              -0.8329607917054354,
              -0.30703133736203375,
              0.7131464271342651,
              -0.5113826340006492,
              0.23033694748066674
            ],
            [
              0.29883868453013157,
              0.9102566264596543,
              -0.25885562099579734,
              0.5990714361954261,
              -0.9897043682001375
            ]
          ],
          "size": [
            4,
            5
          ]
        }
      ],
      "biasList": [
        {
          "data": [
            [
              0
            ],
            [
              0
            ],
            [
              0
            ],
            [
              0
            ],
            [
              0
            ]
          ],
          "size": [
            5,
            1
          ]
        },
        {
          "data": [
            [
              -0.183735476911976
            ],
            [
              0
            ],
            [
              0
            ],
            [
              0
            ]
          ],
          "size": [
            4,
            1
          ]
        }
      ],
      "layer": [
        8,
        5,
        4
      ]
    },
    "score": -15890
  },
  "16": {
    "brain": {
      "weightList": [
        {
          "data": [
            [
              0.052369215534906595,
              -0.6548136736342894,
              0.20244803539573142,
              -0.33251452858134917,
              -0.8776459312745152,
              0.5667937952453146,
              -0.46948682400573954,
              0.2593988676174769
            ],
            [
              -0.48810278052234296,
              -0.5170155341799085,
              -0.1757958138708429,
              0.04864210723826235,
              0.02012726309171371,
              -0.13559066492679114,
              0.7549831360569985,
              -0.0021831092385117697
            ],
            [
              -0.7205199448608236,
              -0.2152793014129229,
              -0.42232941303469274,
              -0.09712090089768997,
              -0.07664604645116836,
              -0.2113126103477638,
              0.3077663187804628,
              -0.5011932774131672
            ],
            [
              -0.4257389992301572,
              0.47101466390505553,
              -0.6341541090225663,
              0.16393973066652878,
              -0.40441974529817243,
              0.45788139528285865,
              -0.29702165895422444,
              0.7470688402504354
            ],
            [
              0.2947070227891203,
              0.037256188084206464,
              0.1299445856158052,
              -0.45736286637999,
              -0.0020744198982988243,
              0.334962035668337,
              -0.12108839977418334,
              -0.10887149210318192
            ]
          ],
          "size": [
            5,
            8
          ]
        },
        {
          "data": [
            [
              0.19431420814959496,
              -0.9038564074085643,
              0.44034669148530975,
              -0.1533273681151207,
              0.2813651811943495
            ],
            [
              -0.04044839940273608,
              -0.07199690918489016,
              -0.09061562608426067,
              0.608421517694044,
              -0.828053358211444
            ],
            [
              -0.8329607917054354,
              -0.30703133736203375,
              0.7131464271342651,
              -0.5113826340006492,
              0.23033694748066674
            ],
            [
              0.29883868453013157,
              0.9102566264596543,
              -0.25885562099579734,
              0.5990714361954261,
              -0.9897043682001375
            ]
          ],
          "size": [
            4,
            5
          ]
        }
      ],
      "biasList": [
        {
          "data": [
            [
              0
            ],
            [
              0
            ],
            [
              0
            ],
            [
              0
            ],
            [
              0
            ]
          ],
          "size": [
            5,
            1
          ]
        },
        {
          "data": [
            [
              -0.183735476911976
            ],
            [
              0
            ],
            [
              0
            ],
            [
              0
            ]
          ],
          "size": [
            4,
            1
          ]
        }
      ],
      "layer": [
        8,
        5,
        4
      ]
    },
    "score": -18344
  },
  "17": {
    "brain": {
      "weightList": [
        {
          "data": [
            [
              0.052369215534906595,
              -0.6548136736342894,
              0.20244803539573142,
              -0.33251452858134917,
              -0.8776459312745152,
              0.5667937952453146,
              -0.46948682400573954,
              0.2593988676174769
            ],
            [
              -0.48810278052234296,
              -0.5170155341799085,
              -0.1757958138708429,
              0.04864210723826235,
              0.02012726309171371,
              -0.13559066492679114,
              0.7549831360569985,
              -0.0021831092385117697
            ],
            [
              -0.7205199448608236,
              -0.2152793014129229,
              -0.42232941303469274,
              -0.09712090089768997,
              -0.07664604645116836,
              -0.2113126103477638,
              0.3077663187804628,
              -0.5011932774131672
            ],
            [
              -0.4257389992301572,
              0.47101466390505553,
              -0.6341541090225663,
              0.16393973066652878,
              -0.40441974529817243,
              0.45788139528285865,
              -0.29702165895422444,
              0.7470688402504354
            ],
            [
              0.2947070227891203,
              0.037256188084206464,
              0.1299445856158052,
              -0.45736286637999,
              -0.0020744198982988243,
              0.334962035668337,
              -0.12108839977418334,
              -0.10887149210318192
            ]
          ],
          "size": [
            5,
            8
          ]
        },
        {
          "data": [
            [
              0.19431420814959496,
              -0.9038564074085643,
              0.44034669148530975,
              -0.1533273681151207,
              0.2813651811943495
            ],
            [
              -0.04044839940273608,
              -0.07199690918489016,
              -0.09061562608426067,
              0.608421517694044,
              -0.828053358211444
            ],
            [
              -0.8329607917054354,
              -0.30703133736203375,
              0.7131464271342651,
              -0.5113826340006492,
              0.23033694748066674
            ],
            [
              0.29883868453013157,
              0.9102566264596543,
              -0.25885562099579734,
              0.5990714361954261,
              -0.9897043682001375
            ]
          ],
          "size": [
            4,
            5
          ]
        }
      ],
      "biasList": [
        {
          "data": [
            [
              0
            ],
            [
              0
            ],
            [
              0.6461123088074892
            ],
            [
              0
            ],
            [
              0
            ]
          ],
          "size": [
            5,
            1
          ]
        },
        {
          "data": [
            [
              -0.183735476911976
            ],
            [
              0
            ],
            [
              0
            ],
            [
              0
            ]
          ],
          "size": [
            4,
            1
          ]
        }
      ],
      "layer": [
        8,
        5,
        4
      ]
    },
    "score": -23170
  },
  "18": {
    "brain": {
      "weightList": [
        {
          "data": [
            [
              0.052369215534906595,
              -0.6548136736342894,
              0.20244803539573142,
              -0.33251452858134917,
              -0.8776459312745152,
              0.5667937952453146,
              -0.46948682400573954,
              0.2593988676174769
            ],
            [
              -0.48810278052234296,
              -0.5170155341799085,
              -0.1757958138708429,
              0.04864210723826235,
              0.02012726309171371,
              -0.13559066492679114,
              0.7549831360569985,
              -0.0021831092385117697
            ],
            [
              -0.7205199448608236,
              -0.2152793014129229,
              -0.42232941303469274,
              -0.09712090089768997,
              -0.07664604645116836,
              -0.2113126103477638,
              0.3077663187804628,
              -0.5011932774131672
            ],
            [
              -0.4257389992301572,
              0.47101466390505553,
              -0.6341541090225663,
              0.16393973066652878,
              -0.40441974529817243,
              0.45788139528285865,
              -0.29702165895422444,
              0.7470688402504354
            ],
            [
              0.2947070227891203,
              0.037256188084206464,
              0.1299445856158052,
              -0.45736286637999,
              -0.0020744198982988243,
              0.334962035668337,
              -0.12108839977418334,
              -0.10887149210318192
            ]
          ],
          "size": [
            5,
            8
          ]
        },
        {
          "data": [
            [
              0.19431420814959496,
              -0.9038564074085643,
              0.44034669148530975,
              -0.1533273681151207,
              0.2813651811943495
            ],
            [
              -0.04044839940273608,
              -0.07199690918489016,
              -0.09061562608426067,
              0.608421517694044,
              -0.828053358211444
            ],
            [
              -0.8329607917054354,
              -0.30703133736203375,
              0.7131464271342651,
              -0.5113826340006492,
              0.23033694748066674
            ],
            [
              0.29883868453013157,
              0.9102566264596543,
              -0.25885562099579734,
              0.5990714361954261,
              -0.9897043682001375
            ]
          ],
          "size": [
            4,
            5
          ]
        }
      ],
      "biasList": [
        {
          "data": [
            [
              0
            ],
            [
              0
            ],
            [
              0
            ],
            [
              0
            ],
            [
              0
            ]
          ],
          "size": [
            5,
            1
          ]
        },
        {
          "data": [
            [
              -0.183735476911976
            ],
            [
              0
            ],
            [
              0
            ],
            [
              -0.744390296453284
            ]
          ],
          "size": [
            4,
            1
          ]
        }
      ],
      "layer": [
        8,
        5,
        4
      ]
    },
    "score": -27399
  },
  "19": {
    "brain": {
      "weightList": [
        {
          "data": [
            [
              0.052369215534906595,
              -0.6548136736342894,
              0.20244803539573142,
              -0.33251452858134917,
              -0.8776459312745152,
              0.5667937952453146,
              -0.46948682400573954,
              0.2593988676174769
            ],
            [
              -0.48810278052234296,
              -0.5170155341799085,
              -0.1757958138708429,
              0.04864210723826235,
              0.02012726309171371,
              -0.13559066492679114,
              0.7549831360569985,
              -0.0021831092385117697
            ],
            [
              -0.7205199448608236,
              -0.2152793014129229,
              -0.42232941303469274,
              -0.09712090089768997,
              -0.07664604645116836,
              -0.2113126103477638,
              0.3077663187804628,
              -0.5011932774131672
            ],
            [
              -0.4257389992301572,
              0.47101466390505553,
              -0.6341541090225663,
              0.16393973066652878,
              -0.40441974529817243,
              0.45788139528285865,
              -0.29702165895422444,
              0.7470688402504354
            ],
            [
              0.2947070227891203,
              0.037256188084206464,
              0.1299445856158052,
              -0.45736286637999,
              -0.0020744198982988243,
              0.334962035668337,
              -0.12108839977418334,
              -0.10887149210318192
            ]
          ],
          "size": [
            5,
            8
          ]
        },
        {
          "data": [
            [
              0.19431420814959496,
              -0.9038564074085643,
              0.44034669148530975,
              -0.1533273681151207,
              0.2813651811943495
            ],
            [
              -0.04044839940273608,
              -0.07199690918489016,
              -0.09061562608426067,
              0.608421517694044,
              -0.828053358211444
            ],
            [
              -0.8329607917054354,
              -0.30703133736203375,
              0.7131464271342651,
              -0.5113826340006492,
              0.23033694748066674
            ],
            [
              0.29883868453013157,
              0.9102566264596543,
              -0.25885562099579734,
              0.5990714361954261,
              -0.9897043682001375
            ]
          ],
          "size": [
            4,
            5
          ]
        }
      ],
      "biasList": [
        {
          "data": [
            [
              0
            ],
            [
              0
            ],
            [
              0
            ],
            [
              0
            ],
            [
              0
            ]
          ],
          "size": [
            5,
            1
          ]
        },
        {
          "data": [
            [
              -0.183735476911976
            ],
            [
              0
            ],
            [
              0
            ],
            [
              0.22938544477321832
            ]
          ],
          "size": [
            4,
            1
          ]
        }
      ],
      "layer": [
        8,
        5,
        4
      ]
    },
    "score": -24174
  },
  "20": {
    "brain": {
      "weightList": [
        {
          "data": [
            [
              0.052369215534906595,
              -0.6548136736342894,
              0.20244803539573142,
              -0.33251452858134917,
              -0.8776459312745152,
              0.5667937952453146,
              -0.46948682400573954,
              0.2593988676174769
            ],
            [
              -0.48810278052234296,
              -0.5170155341799085,
              -0.1757958138708429,
              0.04864210723826235,
              0.02012726309171371,
              -0.13559066492679114,
              0.7549831360569985,
              -0.0021831092385117697
            ],
            [
              -0.7205199448608236,
              -0.2152793014129229,
              -0.42232941303469274,
              -0.09712090089768997,
              -0.07664604645116836,
              -0.2113126103477638,
              0.3077663187804628,
              -0.5011932774131672
            ],
            [
              -0.4257389992301572,
              0.47101466390505553,
              -0.6341541090225663,
              0.16393973066652878,
              -0.40441974529817243,
              0.45788139528285865,
              -0.29702165895422444,
              0.7470688402504354
            ],
            [
              0.2947070227891203,
              0.037256188084206464,
              0.1299445856158052,
              -0.45736286637999,
              -0.0020744198982988243,
              0.334962035668337,
              -0.12108839977418334,
              -0.10887149210318192
            ]
          ],
          "size": [
            5,
            8
          ]
        },
        {
          "data": [
            [
              0.19431420814959496,
              -0.9038564074085643,
              0.44034669148530975,
              -0.1533273681151207,
              0.2813651811943495
            ],
            [
              -0.04044839940273608,
              -0.07199690918489016,
              -0.09061562608426067,
              0.608421517694044,
              -0.828053358211444
            ],
            [
              -0.8329607917054354,
              -0.30703133736203375,
              0.7131464271342651,
              -0.5113826340006492,
              0.23033694748066674
            ],
            [
              0.29883868453013157,
              0.9102566264596543,
              -0.25885562099579734,
              0.5990714361954261,
              -0.9897043682001375
            ]
          ],
          "size": [
            4,
            5
          ]
        }
      ],
      "biasList": [
        {
          "data": [
            [
              0
            ],
            [
              0
            ],
            [
              -0.6746949883992834
            ],
            [
              0
            ],
            [
              0
            ]
          ],
          "size": [
            5,
            1
          ]
        },
        {
          "data": [
            [
              -0.183735476911976
            ],
            [
              0
            ],
            [
              0
            ],
            [
              0
            ]
          ],
          "size": [
            4,
            1
          ]
        }
      ],
      "layer": [
        8,
        5,
        4
      ]
    },
    "score": -24181
  },
  "21": {
    "brain": {
      "weightList": [
        {
          "data": [
            [
              0.052369215534906595,
              -0.6548136736342894,
              0.20244803539573142,
              -0.33251452858134917,
              -0.8776459312745152,
              0.5667937952453146,
              -0.46948682400573954,
              0.2593988676174769
            ],
            [
              -0.48810278052234296,
              -0.5170155341799085,
              -0.1757958138708429,
              0.04864210723826235,
              0.02012726309171371,
              -0.13559066492679114,
              0.7549831360569985,
              -0.0021831092385117697
            ],
            [
              -0.7205199448608236,
              -0.2152793014129229,
              -0.42232941303469274,
              -0.09712090089768997,
              -0.07664604645116836,
              -0.2113126103477638,
              0.3077663187804628,
              -0.5011932774131672
            ],
            [
              -0.4257389992301572,
              0.47101466390505553,
              -0.6341541090225663,
              0.16393973066652878,
              -0.40441974529817243,
              0.45788139528285865,
              -0.29702165895422444,
              0.7470688402504354
            ],
            [
              0.2947070227891203,
              0.037256188084206464,
              0.1299445856158052,
              -0.45736286637999,
              -0.0020744198982988243,
              0.334962035668337,
              -0.12108839977418334,
              -0.10887149210318192
            ]
          ],
          "size": [
            5,
            8
          ]
        },
        {
          "data": [
            [
              0.19431420814959496,
              -0.9038564074085643,
              0.44034669148530975,
              -0.1533273681151207,
              0.2813651811943495
            ],
            [
              -0.04044839940273608,
              -0.07199690918489016,
              -0.09061562608426067,
              0.608421517694044,
              -0.828053358211444
            ],
            [
              -0.8329607917054354,
              -0.30703133736203375,
              0.7131464271342651,
              -0.5113826340006492,
              0.23033694748066674
            ],
            [
              0.29883868453013157,
              0.9102566264596543,
              -0.25885562099579734,
              0.5990714361954261,
              -0.9897043682001375
            ]
          ],
          "size": [
            4,
            5
          ]
        }
      ],
      "biasList": [
        {
          "data": [
            [
              -1.4536025613206007
            ],
            [
              0
            ],
            [
              0.3130784747461243
            ],
            [
              0
            ],
            [
              0
            ]
          ],
          "size": [
            5,
            1
          ]
        },
        {
          "data": [
            [
              -0.183735476911976
            ],
            [
              0
            ],
            [
              0
            ],
            [
              0
            ]
          ],
          "size": [
            4,
            1
          ]
        }
      ],
      "layer": [
        8,
        5,
        4
      ]
    },
    "score": -22825
  },
  "22": {
    "brain": {
      "weightList": [
        {
          "data": [
            [
              0.052369215534906595,
              -0.6548136736342894,
              0.20244803539573142,
              -0.33251452858134917,
              -0.8776459312745152,
              0.5667937952453146,
              -0.46948682400573954,
              0.2593988676174769
            ],
            [
              -0.48810278052234296,
              -0.5170155341799085,
              -0.1757958138708429,
              0.04864210723826235,
              0.02012726309171371,
              -0.13559066492679114,
              0.7549831360569985,
              -0.0021831092385117697
            ],
            [
              -0.7205199448608236,
              -0.2152793014129229,
              -0.42232941303469274,
              -0.09712090089768997,
              -0.07664604645116836,
              -0.2113126103477638,
              0.3077663187804628,
              -0.5011932774131672
            ],
            [
              -0.4257389992301572,
              0.47101466390505553,
              -0.6341541090225663,
              0.16393973066652878,
              -0.40441974529817243,
              0.45788139528285865,
              -0.29702165895422444,
              0.7470688402504354
            ],
            [
              0.2947070227891203,
              0.037256188084206464,
              0.1299445856158052,
              -0.45736286637999,
              -0.0020744198982988243,
              0.334962035668337,
              -0.12108839977418334,
              -0.10887149210318192
            ]
          ],
          "size": [
            5,
            8
          ]
        },
        {
          "data": [
            [
              0.19431420814959496,
              -0.9038564074085643,
              0.44034669148530975,
              -0.1533273681151207,
              0.2813651811943495
            ],
            [
              -0.04044839940273608,
              -0.07199690918489016,
              -0.09061562608426067,
              0.608421517694044,
              -0.828053358211444
            ],
            [
              -0.8329607917054354,
              -0.30703133736203375,
              0.7131464271342651,
              -0.5113826340006492,
              0.23033694748066674
            ],
            [
              0.29883868453013157,
              0.9102566264596543,
              -0.25885562099579734,
              0.5990714361954261,
              -0.9897043682001375
            ]
          ],
          "size": [
            4,
            5
          ]
        }
      ],
      "biasList": [
        {
          "data": [
            [
              0
            ],
            [
              0
            ],
            [
              0
            ],
            [
              0.6873756516211418
            ],
            [
              -1.2014730079619833
            ]
          ],
          "size": [
            5,
            1
          ]
        },
        {
          "data": [
            [
              -0.183735476911976
            ],
            [
              0
            ],
            [
              0
            ],
            [
              0
            ]
          ],
          "size": [
            4,
            1
          ]
        }
      ],
      "layer": [
        8,
        5,
        4
      ]
    },
    "score": -21824
  },
  "23": {
    "brain": {
      "weightList": [
        {
          "data": [
            [
              0.052369215534906595,
              -0.6548136736342894,
              0.20244803539573142,
              -0.33251452858134917,
              -0.8776459312745152,
              0.5667937952453146,
              -0.46948682400573954,
              0.2593988676174769
            ],
            [
              -0.48810278052234296,
              -0.5170155341799085,
              -0.1757958138708429,
              0.04864210723826235,
              0.02012726309171371,
              -0.13559066492679114,
              0.7549831360569985,
              -0.0021831092385117697
            ],
            [
              -0.7205199448608236,
              -0.2152793014129229,
              -0.42232941303469274,
              -0.09712090089768997,
              -0.07664604645116836,
              -0.2113126103477638,
              0.3077663187804628,
              -0.5011932774131672
            ],
            [
              -0.4257389992301572,
              0.47101466390505553,
              -0.6341541090225663,
              0.16393973066652878,
              -0.40441974529817243,
              0.45788139528285865,
              -0.29702165895422444,
              0.7470688402504354
            ],
            [
              0.2947070227891203,
              0.037256188084206464,
              0.1299445856158052,
              -0.45736286637999,
              -0.0020744198982988243,
              0.334962035668337,
              -0.12108839977418334,
              -0.10887149210318192
            ]
          ],
          "size": [
            5,
            8
          ]
        },
        {
          "data": [
            [
              0.19431420814959496,
              -0.9038564074085643,
              0.44034669148530975,
              -0.1533273681151207,
              0.2813651811943495
            ],
            [
              -0.04044839940273608,
              -0.07199690918489016,
              -0.09061562608426067,
              0.608421517694044,
              -0.828053358211444
            ],
            [
              -0.8329607917054354,
              -0.30703133736203375,
              0.7131464271342651,
              -0.5113826340006492,
              0.23033694748066674
            ],
            [
              0.29883868453013157,
              0.9102566264596543,
              -0.25885562099579734,
              0.5990714361954261,
              -0.9897043682001375
            ]
          ],
          "size": [
            4,
            5
          ]
        }
      ],
      "biasList": [
        {
          "data": [
            [
              0
            ],
            [
              0
            ],
            [
              0
            ],
            [
              1.8204595648950972
            ],
            [
              0
            ]
          ],
          "size": [
            5,
            1
          ]
        },
        {
          "data": [
            [
              -0.183735476911976
            ],
            [
              0
            ],
            [
              0
            ],
            [
              0
            ]
          ],
          "size": [
            4,
            1
          ]
        }
      ],
      "layer": [
        8,
        5,
        4
      ]
    },
    "score": -24360
  },
  "24": {
    "brain": {
      "weightList": [
        {
          "data": [
            [
              0.052369215534906595,
              -0.6548136736342894,
              0.20244803539573142,
              -0.33251452858134917,
              -0.8776459312745152,
              0.5667937952453146,
              -0.46948682400573954,
              0.2593988676174769
            ],
            [
              -0.48810278052234296,
              -0.5170155341799085,
              -0.1757958138708429,
              0.04864210723826235,
              0.02012726309171371,
              -0.13559066492679114,
              0.7549831360569985,
              -0.0021831092385117697
            ],
            [
              -0.7205199448608236,
              -0.2152793014129229,
              -0.42232941303469274,
              -0.09712090089768997,
              -0.07664604645116836,
              -0.2113126103477638,
              0.3077663187804628,
              -0.5011932774131672
            ],
            [
              -0.4257389992301572,
              0.47101466390505553,
              -0.6341541090225663,
              0.16393973066652878,
              -0.40441974529817243,
              0.45788139528285865,
              -0.29702165895422444,
              0.7470688402504354
            ],
            [
              0.2947070227891203,
              0.037256188084206464,
              0.1299445856158052,
              -0.45736286637999,
              -0.0020744198982988243,
              0.334962035668337,
              -0.12108839977418334,
              -0.10887149210318192
            ]
          ],
          "size": [
            5,
            8
          ]
        },
        {
          "data": [
            [
              0.19431420814959496,
              -0.9038564074085643,
              0.44034669148530975,
              -0.1533273681151207,
              0.2813651811943495
            ],
            [
              -0.04044839940273608,
              -0.07199690918489016,
              -0.09061562608426067,
              0.608421517694044,
              -0.828053358211444
            ],
            [
              -0.8329607917054354,
              -0.30703133736203375,
              0.7131464271342651,
              -0.5113826340006492,
              0.23033694748066674
            ],
            [
              0.29883868453013157,
              0.9102566264596543,
              -0.25885562099579734,
              0.5990714361954261,
              -0.9897043682001375
            ]
          ],
          "size": [
            4,
            5
          ]
        }
      ],
      "biasList": [
        {
          "data": [
            [
              0
            ],
            [
              0
            ],
            [
              0.6461123088074892
            ],
            [
              0.018767169920045408
            ],
            [
              0
            ]
          ],
          "size": [
            5,
            1
          ]
        },
        {
          "data": [
            [
              -0.183735476911976
            ],
            [
              0
            ],
            [
              0
            ],
            [
              0
            ]
          ],
          "size": [
            4,
            1
          ]
        }
      ],
      "layer": [
        8,
        5,
        4
      ]
    },
    "score": -25654
  },
  "25": {
    "brain": {
      "weightList": [
        {
          "data": [
            [
              0.052369215534906595,
              -0.6548136736342894,
              0.20244803539573142,
              -0.33251452858134917,
              -0.8776459312745152,
              0.5667937952453146,
              -0.46948682400573954,
              0.2593988676174769
            ],
            [
              -0.48810278052234296,
              -0.5170155341799085,
              -0.1757958138708429,
              0.04864210723826235,
              0.02012726309171371,
              -0.13559066492679114,
              0.7549831360569985,
              -0.0021831092385117697
            ],
            [
              -0.7205199448608236,
              -0.2152793014129229,
              -0.42232941303469274,
              -0.09712090089768997,
              -0.07664604645116836,
              -0.2113126103477638,
              0.3077663187804628,
              -0.5011932774131672
            ],
            [
              -0.4257389992301572,
              0.47101466390505553,
              -0.6341541090225663,
              0.16393973066652878,
              -0.40441974529817243,
              0.45788139528285865,
              -0.29702165895422444,
              0.7470688402504354
            ],
            [
              0.2947070227891203,
              0.037256188084206464,
              0.1299445856158052,
              -0.45736286637999,
              -0.0020744198982988243,
              0.334962035668337,
              -0.12108839977418334,
              -0.10887149210318192
            ]
          ],
          "size": [
            5,
            8
          ]
        },
        {
          "data": [
            [
              0.19431420814959496,
              -0.9038564074085643,
              0.44034669148530975,
              -0.1533273681151207,
              0.2813651811943495
            ],
            [
              -0.04044839940273608,
              -0.07199690918489016,
              -0.09061562608426067,
              0.608421517694044,
              -0.828053358211444
            ],
            [
              -0.8329607917054354,
              -0.30703133736203375,
              0.7131464271342651,
              -0.5113826340006492,
              0.23033694748066674
            ],
            [
              0.29883868453013157,
              0.9102566264596543,
              -0.25885562099579734,
              0.5990714361954261,
              -0.9897043682001375
            ]
          ],
          "size": [
            4,
            5
          ]
        }
      ],
      "biasList": [
        {
          "data": [
            [
              0
            ],
            [
              0
            ],
            [
              -0.6746949883992834
            ],
            [
              0.8156081360468471
            ],
            [
              0
            ]
          ],
          "size": [
            5,
            1
          ]
        },
        {
          "data": [
            [
              -0.183735476911976
            ],
            [
              -0.8967612400743304
            ],
            [
              0
            ],
            [
              0
            ]
          ],
          "size": [
            4,
            1
          ]
        }
      ],
      "layer": [
        8,
        5,
        4
      ]
    },
    "score": -24957
  },
  "26": {
    "brain": {
      "weightList": [
        {
          "data": [
            [
              0.052369215534906595,
              -0.6548136736342894,
              0.20244803539573142,
              -0.33251452858134917,
              -0.8776459312745152,
              0.5667937952453146,
              -0.46948682400573954,
              0.2593988676174769
            ],
            [
              -0.48810278052234296,
              -0.5170155341799085,
              -0.1757958138708429,
              0.04864210723826235,
              0.02012726309171371,
              -0.13559066492679114,
              0.7549831360569985,
              -0.0021831092385117697
            ],
            [
              -0.7205199448608236,
              -0.2152793014129229,
              -0.42232941303469274,
              -0.09712090089768997,
              -0.07664604645116836,
              -0.2113126103477638,
              0.3077663187804628,
              -0.5011932774131672
            ],
            [
              -0.4257389992301572,
              0.47101466390505553,
              -0.6341541090225663,
              0.16393973066652878,
              -0.40441974529817243,
              0.45788139528285865,
              -0.29702165895422444,
              0.7470688402504354
            ],
            [
              0.2947070227891203,
              0.037256188084206464,
              0.1299445856158052,
              -0.45736286637999,
              -0.0020744198982988243,
              0.334962035668337,
              -0.12108839977418334,
              -0.10887149210318192
            ]
          ],
          "size": [
            5,
            8
          ]
        },
        {
          "data": [
            [
              0.19431420814959496,
              -0.9038564074085643,
              0.44034669148530975,
              -0.1533273681151207,
              0.2813651811943495
            ],
            [
              -0.04044839940273608,
              -0.07199690918489016,
              -0.09061562608426067,
              0.608421517694044,
              -0.828053358211444
            ],
            [
              -0.8329607917054354,
              -0.30703133736203375,
              0.7131464271342651,
              -0.5113826340006492,
              0.23033694748066674
            ],
            [
              0.29883868453013157,
              0.9102566264596543,
              -0.25885562099579734,
              0.5990714361954261,
              -0.9897043682001375
            ]
          ],
          "size": [
            4,
            5
          ]
        }
      ],
      "biasList": [
        {
          "data": [
            [
              0
            ],
            [
              -0.13350662813730482
            ],
            [
              0
            ],
            [
              -0.12942406030636014
            ],
            [
              0
            ]
          ],
          "size": [
            5,
            1
          ]
        },
        {
          "data": [
            [
              -0.183735476911976
            ],
            [
              0
            ],
            [
              0
            ],
            [
              -0.744390296453284
            ]
          ],
          "size": [
            4,
            1
          ]
        }
      ],
      "layer": [
        8,
        5,
        4
      ]
    },
    "score": -23709
  },
  "27": {
    "brain": {
      "weightList": [
        {
          "data": [
            [
              0.052369215534906595,
              -0.6548136736342894,
              0.20244803539573142,
              -0.33251452858134917,
              -0.8776459312745152,
              0.5667937952453146,
              -0.46948682400573954,
              0.2593988676174769
            ],
            [
              -0.48810278052234296,
              -0.5170155341799085,
              -0.1757958138708429,
              0.04864210723826235,
              0.02012726309171371,
              -0.13559066492679114,
              0.7549831360569985,
              -0.0021831092385117697
            ],
            [
              -0.7205199448608236,
              -0.2152793014129229,
              -0.42232941303469274,
              -0.09712090089768997,
              -0.07664604645116836,
              -0.2113126103477638,
              0.3077663187804628,
              -0.5011932774131672
            ],
            [
              -0.4257389992301572,
              0.47101466390505553,
              -0.6341541090225663,
              0.16393973066652878,
              -0.40441974529817243,
              0.45788139528285865,
              -0.29702165895422444,
              0.7470688402504354
            ],
            [
              0.2947070227891203,
              0.037256188084206464,
              0.1299445856158052,
              -0.45736286637999,
              -0.0020744198982988243,
              0.334962035668337,
              -0.12108839977418334,
              -0.10887149210318192
            ]
          ],
          "size": [
            5,
            8
          ]
        },
        {
          "data": [
            [
              0.19431420814959496,
              -0.9038564074085643,
              0.44034669148530975,
              -0.1533273681151207,
              0.2813651811943495
            ],
            [
              -0.04044839940273608,
              -0.07199690918489016,
              -0.09061562608426067,
              0.608421517694044,
              -0.828053358211444
            ],
            [
              -0.8329607917054354,
              -0.30703133736203375,
              0.7131464271342651,
              -0.5113826340006492,
              0.23033694748066674
            ],
            [
              0.29883868453013157,
              0.9102566264596543,
              -0.25885562099579734,
              0.5990714361954261,
              -0.9897043682001375
            ]
          ],
          "size": [
            4,
            5
          ]
        }
      ],
      "biasList": [
        {
          "data": [
            [
              0
            ],
            [
              0
            ],
            [
              -0.5319781061681264
            ],
            [
              -0.09002798533308724
            ],
            [
              -0.8213428771010948
            ]
          ],
          "size": [
            5,
            1
          ]
        },
        {
          "data": [
            [
              -0.183735476911976
            ],
            [
              0
            ],
            [
              0
            ],
            [
              0
            ]
          ],
          "size": [
            4,
            1
          ]
        }
      ],
      "layer": [
        8,
        5,
        4
      ]
    },
    "score": -25051
  },
  "28": {
    "brain": {
      "weightList": [
        {
          "data": [
            [
              0.052369215534906595,
              -0.6548136736342894,
              0.20244803539573142,
              -0.33251452858134917,
              -0.8776459312745152,
              0.5667937952453146,
              -0.46948682400573954,
              0.2593988676174769
            ],
            [
              -0.48810278052234296,
              -0.5170155341799085,
              -0.1757958138708429,
              0.04864210723826235,
              0.02012726309171371,
              -0.13559066492679114,
              0.7549831360569985,
              -0.0021831092385117697
            ],
            [
              -0.7205199448608236,
              -0.2152793014129229,
              -0.42232941303469274,
              -0.09712090089768997,
              -0.07664604645116836,
              -0.2113126103477638,
              0.3077663187804628,
              -0.5011932774131672
            ],
            [
              -0.4257389992301572,
              0.47101466390505553,
              -0.6341541090225663,
              0.16393973066652878,
              -0.40441974529817243,
              0.45788139528285865,
              -0.29702165895422444,
              0.7470688402504354
            ],
            [
              0.2947070227891203,
              0.037256188084206464,
              0.1299445856158052,
              -0.45736286637999,
              -0.0020744198982988243,
              0.334962035668337,
              -0.12108839977418334,
              -0.10887149210318192
            ]
          ],
          "size": [
            5,
            8
          ]
        },
        {
          "data": [
            [
              0.19431420814959496,
              -0.9038564074085643,
              0.44034669148530975,
              -0.1533273681151207,
              0.2813651811943495
            ],
            [
              -0.04044839940273608,
              -0.07199690918489016,
              -0.09061562608426067,
              0.608421517694044,
              -0.828053358211444
            ],
            [
              -0.8329607917054354,
              -0.30703133736203375,
              0.7131464271342651,
              -0.5113826340006492,
              0.23033694748066674
            ],
            [
              0.29883868453013157,
              0.9102566264596543,
              -0.25885562099579734,
              0.5990714361954261,
              -0.9897043682001375
            ]
          ],
          "size": [
            4,
            5
          ]
        }
      ],
      "biasList": [
        {
          "data": [
            [
              0.8080820137488013
            ],
            [
              0
            ],
            [
              0
            ],
            [
              0
            ],
            [
              0
            ]
          ],
          "size": [
            5,
            1
          ]
        },
        {
          "data": [
            [
              -0.183735476911976
            ],
            [
              0
            ],
            [
              0
            ],
            [
              -0.030312359589681554
            ]
          ],
          "size": [
            4,
            1
          ]
        }
      ],
      "layer": [
        8,
        5,
        4
      ]
    },
    "score": -24773
  },
  "29": {
    "brain": {
      "weightList": [
        {
          "data": [
            [
              0.052369215534906595,
              -0.6548136736342894,
              0.20244803539573142,
              -0.33251452858134917,
              -0.8776459312745152,
              0.5667937952453146,
              -0.46948682400573954,
              0.2593988676174769
            ],
            [
              -0.48810278052234296,
              -0.5170155341799085,
              -0.1757958138708429,
              0.04864210723826235,
              0.02012726309171371,
              -0.13559066492679114,
              0.7549831360569985,
              -0.0021831092385117697
            ],
            [
              -0.7205199448608236,
              -0.2152793014129229,
              -0.42232941303469274,
              -0.09712090089768997,
              -0.07664604645116836,
