{
    "brain": {
      "weightList": [
        {
          "data": [
            [
              0.052369215534906595,
              -0.6548136736342894,
              0.20244803539573142,
              -0.33251452858134917,
              -0.8776459312745152,
              0.5667937952453146,
              -0.46948682400573954,
              0.2593988676174769
            ],
            [
              -0.48810278052234296,
              -0.5170155341799085,
              -0.1757958138708429,
              0.04864210723826235,
              0.02012726309171371,
              -0.13559066492679114,
              0.7549831360569985,
              -0.0021831092385117697
            ],
            [
              -0.7205199448608236,
              -0.2152793014129229,
              -0.42232941303469274,
              -0.09712090089768997,
              -0.07664604645116836,
              -0.2113126103477638,
              0.3077663187804628,
              -0.5011932774131672
            ],
            [
              -0.4257389992301572,
              0.47101466390505553,
              -0.6341541090225663,
              0.16393973066652878,
              -0.40441974529817243,
              0.45788139528285865,
              -0.29702165895422444,
              0.7470688402504354
            ],
            [
              0.2947070227891203,
              0.037256188084206464,
              0.1299445856158052,
              -0.45736286637999,
              -0.0020744198982988243,
              0.334962035668337,
              -0.12108839977418334,
              -0.10887149210318192
            ]
          ],
          "size": [
            5,
            8
          ]
        },
        {
          "data": [
            [
              0.19431420814959496,
              -0.9038564074085643,
              0.44034669148530975,
              -0.1533273681151207,
              0.2813651811943495
            ],
            [
              -0.04044839940273608,
              -0.07199690918489016,
              -0.09061562608426067,
              0.608421517694044,
              -0.828053358211444
            ],
            [
              -0.8329607917054354,
              -0.30703133736203375,
              0.7131464271342651,
              -0.5113826340006492,
              0.23033694748066674
            ],
            [
              0.29883868453013157,
              0.9102566264596543,
              -0.25885562099579734,
              0.5990714361954261,
              -0.9897043682001375
            ]
          ],
          "size": [
            4,
            5
          ]
        }
      ],
      "biasList": [
        {
          "data": [
            [
              0
            ],
            [
              0
            ],
            [
              0
            ],
            [
              1.2148275704757159
            ],
            [
              0
            ]
          ],
          "size": [
            5,
            1
          ]
        },
        {
          "data": [
            [
              -0.183735476911976
            ],
            [
              0
            ],
            [
              0
            ],
            [
              0
            ]
          ],
          "size": [
            4,
            1
          ]
        }
      ],
      "layer": [
        8,
        5,
        4
      ]
    },
    "score": -19524
  }