{
    "brain": {
      "weightList": [
        {
          "mathjs": "DenseMatrix",
          "data": [
            [
              0.22671172553981647,
              0.3852382598606635,
              -0.04581868008294744,
              -0.3265213302551315,
              -0.3331214576055027,
              -0.4365755391326681,
              0.006551259813402747,
              -0.462537711148571
            ],
            [
              0.9846310438771488,
              -1.0921623629178403,
              -0.12229853150624213,
              0.31704235894525384,
              0.3557599755142243,
              -0.2553071052556085,
              0.12015752495897424,
              -0.2585971617117826
            ],
            [
              0.4824634757695607,
              -0.18568384096803267,
              -0.8701526401759588,
              -0.3950495405639983,
              -0.34913429725215817,
              -0.7678130770916235,
              0.44069675357129096,
              -0.3643697985175595
            ],
            [
              0.12555254074910707,
              -0.3481771998376093,
              0.15142396282429318,
              0.43748038447940657,
              -0.32648936084639407,
              -0.2012102482099278,
              -1.048584123434392,
              0.7714070719845947
            ],
            [
              -0.2531248021978937,
              -0.38513652199797554,
              -0.4693617882347457,
              0.24933443015039397,
              0.26478831594281393,
              -0.006862708109124399,
              0.8040164883561965,
              -0.5649758939430259
            ]
          ],
          "size": [
            5,
            8
          ]
        },
        {
          "mathjs": "DenseMatrix",
          "data": [
            [
              0.394876954309738,
              -0.39342817701584243,
              0.5275572259276907,
              -0.045353705551094754,
              -0.42640542953169175
            ],
            [
              0.7479087363501643,
              -0.5176349745120685,
              -0.4620253114152327,
              0.5843373937933733,
              -0.2898186238768565
            ],
            [
              -0.11655689917632618,
              -0.30206032545864897,
              -0.32458695345052435,
              0.020749301126089532,
              -1.0125652196582564
            ],
            [
              -0.3366993716329311,
              -0.619137232034494,
              -0.462037527180777,
              0.12313407203157442,
              0.324018758059093
            ]
          ],
          "size": [
            4,
            5
          ]
        }
      ],
      "biasList": [
        {
          "mathjs": "DenseMatrix",
          "data": [
            [
              0
            ],
            [
              0
            ],
            [
              0
            ],
            [
              0
            ],
            [
              0
            ]
          ],
          "size": [
            5,
            1
          ]
        },
        {
          "mathjs": "DenseMatrix",
          "data": [
            [
              0
            ],
            [
              0
            ],
            [
              0
            ],
            [
              0
            ]
          ],
          "size": [
            4,
            1
          ]
        }
      ],
      "layer": 3
    },
    "score": 9962
}
